<?xml version="1.0"?>
<opencv_storage>
<my_svm type_id="opencv-ml-svm">
  <svm_type>C_SVC</svm_type>
  <kernel><type>RBF</type>
    <gamma>1.</gamma></kernel>
  <C>1.</C>
  <term_criteria><epsilon>2.2204460492503131e-016</epsilon>
    <iterations>100</iterations></term_criteria>
  <var_all>256</var_all>
  <var_count>256</var_count>
  <class_count>8</class_count>
  <class_labels type_id="opencv-matrix">
    <rows>1</rows>
    <cols>8</cols>
    <dt>i</dt>
    <data>
      1 2 3 4 5 6 7 8</data></class_labels>
  <sv_total>8</sv_total>
  <support_vectors>
    <_>
      1.24954753e-001 1.51348989e-002 1.54702831e-002 1.00349225e-002
      1.47356316e-002 2.85875518e-003 1.00402460e-002 1.11688422e-002
      1.39424205e-002 1.01733347e-002 4.34935372e-003 1.42565109e-002
      2.20395671e-003 1.99101376e-003 2.90134363e-003 1.31864734e-002
      1.39424205e-002 2.22525070e-003 4.38129483e-003 2.94925552e-003
      9.57709551e-003 1.86857162e-003 1.37188304e-002 1.32130915e-002
      1.72483549e-003 1.37880375e-003 4.36532428e-004 1.54915778e-003
      1.33621518e-003 1.24039093e-003 1.66095281e-003 8.18764511e-003
      1.21537019e-002 2.50207609e-003 1.97504321e-003 1.76742394e-003
      3.57211311e-003 4.57826682e-004 1.78871839e-003 2.03360245e-003
      8.15570354e-003 9.43335891e-003 2.67775380e-003 1.16213467e-002
      1.59174635e-003 1.99101376e-003 2.24122149e-003 1.19194658e-002
      1.87389541e-003 4.41856013e-004 4.79120936e-004 4.20561730e-004
      1.62901124e-003 3.93943919e-004 2.75228382e-003 2.71501881e-003
      1.18715526e-003 1.05938967e-003 3.67326080e-004 1.34153874e-003
      1.01147755e-003 1.31492084e-003 1.49592222e-003 7.20810890e-003
      1.24145579e-002 2.12410279e-003 1.72483549e-003 1.35750941e-003
      2.09216168e-003 5.00415219e-004 1.45333365e-003 1.18715526e-003
      4.25352994e-003 2.71501881e-003 4.36532428e-004 1.50656933e-003
      4.41855984e-004 5.16385946e-004 3.56678938e-004 1.45865721e-003
      4.22158791e-003 5.11062390e-004 4.36532428e-004 3.51355353e-004
      2.88537308e-003 5.48327342e-004 1.48527499e-003 1.40542153e-003
      4.36532428e-004 3.03443288e-004 8.51770601e-005 3.03443288e-004
      3.83296778e-004 4.47179540e-004 3.46031826e-004 1.50656933e-003
      8.29411671e-003 1.70886470e-003 1.20844960e-003 1.10730180e-003
      1.73548260e-003 2.82149005e-004 9.10329865e-004 1.27765595e-003
      1.12007838e-002 1.13604907e-002 1.39477442e-003 7.08566699e-003
      2.58192956e-003 2.66178325e-003 1.38412730e-003 6.94725383e-003
      2.44351709e-003 5.05738775e-004 3.19413986e-004 3.72649665e-004
      2.07086722e-003 5.00415219e-004 1.41606864e-003 1.50124566e-003
      1.35218585e-003 1.14456681e-003 3.35384684e-004 1.32024440e-003
      1.35218585e-003 1.51721633e-003 2.31575128e-003 7.67125934e-003
      1.25529701e-002 3.51887732e-003 2.00698455e-003 1.55980489e-003
      2.50207609e-003 5.74945123e-004 1.83130684e-003 2.07086722e-003
      1.89518952e-003 1.70354126e-003 5.48327283e-004 2.82681384e-003
      4.41855984e-004 3.19413986e-004 5.16385946e-004 2.70969537e-003
      8.75194278e-003 1.66627637e-003 2.50739977e-003 2.31575128e-003
      9.43335984e-003 1.75677694e-003 1.15468148e-002 1.14722857e-002
      1.22974382e-003 9.15653422e-004 2.87472591e-004 1.51721644e-003
      1.05938967e-003 1.24571449e-003 1.36815663e-003 7.15487311e-003
      2.14539724e-003 4.79120965e-004 3.83296778e-004 4.04591032e-004
      3.62002495e-004 1.06471329e-004 3.24737543e-004 4.68473852e-004
      1.48527510e-003 1.64498203e-003 4.09914617e-004 2.40092841e-003
      3.67326080e-004 4.73797409e-004 4.52503096e-004 2.88537284e-003
      1.60771713e-003 2.92796147e-004 3.77973221e-004 4.68473852e-004
      1.87921897e-003 4.73797409e-004 2.44351686e-003 2.68840115e-003
      9.74212657e-004 1.14989036e-003 2.98119732e-004 1.42671575e-003
      1.21909671e-003 1.87389529e-003 1.43203931e-003 9.64097865e-003
      8.28879233e-003 1.50656921e-003 1.11262535e-003 1.01680122e-003
      1.64498191e-003 3.62002524e-004 1.10730180e-003 1.34153874e-003
      2.49142898e-003 2.14539724e-003 3.14090430e-004 1.48527499e-003
      4.09914588e-004 5.16385888e-004 3.72649636e-004 1.54383422e-003
      1.17384624e-002 2.65645958e-003 1.41606864e-003 1.45333365e-003
      1.14350216e-002 2.61919480e-003 7.08566699e-003 7.01113697e-003
      1.24039105e-003 1.37348007e-003 2.92796147e-004 2.21992726e-003
      1.11794891e-003 1.51189289e-003 1.32024440e-003 7.31458003e-003
      7.69787701e-003 1.60239346e-003 9.31624090e-004 1.18715526e-003
      1.56512833e-003 4.79120965e-004 1.12327246e-003 1.87389529e-003
      9.79536213e-003 9.54515394e-003 1.02744834e-003 6.10613078e-003
      2.35301629e-003 2.44884053e-003 1.40009797e-003 9.21509415e-003
      9.76874493e-003 2.34769285e-003 1.08068390e-003 1.44268642e-003
      9.99233406e-003 2.64581270e-003 6.04224764e-003 9.21509322e-003
      5.98368887e-003 5.84527617e-003 1.13391969e-003 6.20195502e-003
      5.89851197e-003 8.78920779e-003 6.55863388e-003 4.05442826e-002</_>
    <_>
      1.21952258e-001 1.22548491e-002 1.79137997e-002 1.15201976e-002
      1.19833481e-002 2.75760749e-003 1.11794900e-002 1.46291601e-002
      1.61410533e-002 1.10038118e-002 2.91731441e-003 1.05406614e-002
      2.02295510e-003 2.16136803e-003 1.97504321e-003 1.30640324e-002
      1.61410533e-002 2.16136803e-003 2.94925575e-003 2.09748512e-003
      1.08174868e-002 2.10280879e-003 1.10623706e-002 1.36230066e-002
      3.37514118e-003 1.71951181e-003 4.89768106e-004 1.63433491e-003
      1.67159992e-003 1.90051331e-003 1.67159992e-003 1.02638360e-002
      9.66759678e-003 2.36898707e-003 2.05489667e-003 2.07086746e-003
      1.42671575e-003 4.68473823e-004 1.21377304e-003 2.20395648e-003
      9.15653352e-003 1.37241539e-002 1.79936539e-003 1.40329208e-002
      1.08068401e-003 2.26251571e-003 1.12859602e-003 9.22041759e-003
      1.73015904e-003 4.20561759e-004 3.40708240e-004 2.92796147e-004
      1.35750941e-003 3.56678938e-004 1.27233239e-003 2.02827877e-003
      1.49592222e-003 1.67159981e-003 3.08766845e-004 1.46930432e-003
      1.03809545e-003 2.02827877e-003 9.42271203e-004 7.91614316e-003
      1.43683050e-002 1.83663028e-003 3.37514095e-003 1.85260107e-003
      2.00166088e-003 4.36532457e-004 1.83663028e-003 1.83130684e-003
      2.32107495e-003 1.84727763e-003 4.52503155e-004 1.67159981e-003
      4.04591061e-004 3.24737543e-004 3.67326080e-004 1.43203931e-003
      2.28913338e-003 4.04591032e-004 4.52503155e-004 3.08766845e-004
      1.90051319e-003 3.14090430e-004 1.62368780e-003 1.33621518e-003
      4.15238203e-004 3.24737572e-004 1.49059852e-004 2.23589785e-004
      3.46031826e-004 2.92796147e-004 2.02295530e-004 1.24039093e-003
      8.64014868e-003 1.71418849e-003 1.36283296e-003 1.63433491e-003
      1.11794891e-003 3.24737543e-004 9.31624090e-004 1.94842520e-003
      7.87887815e-003 1.08334571e-002 1.35218585e-003 9.55047831e-003
      1.17650814e-003 1.77274761e-003 9.95506882e-004 7.51687586e-003
      1.54915790e-003 2.92796176e-004 3.24737543e-004 2.12942658e-004
      1.06471335e-003 3.46031797e-004 9.79536097e-004 1.55448145e-003
      1.38945086e-003 1.03809545e-003 1.38412724e-004 1.07536046e-003
      8.89035582e-004 1.46398065e-003 8.03858566e-004 6.10613078e-003
      9.93909873e-003 1.17118459e-003 1.88986608e-003 1.22442027e-003
      2.36898707e-003 4.57826711e-004 2.14539724e-003 2.04424956e-003
      1.86857185e-003 1.26168516e-003 3.40708240e-004 1.25103816e-003
      4.20561759e-004 3.67326080e-004 3.14090430e-004 2.01230799e-003
      9.34285950e-003 9.84859769e-004 1.74612971e-003 1.02212466e-003
      1.37241539e-002 2.28381017e-003 1.38625670e-002 9.15121101e-003
      1.54383422e-003 1.02744834e-003 2.87472561e-004 1.04341900e-003
      1.67159969e-003 2.10280856e-003 1.37880363e-003 7.92679004e-003
      1.98036665e-003 4.25885315e-004 4.04591032e-004 3.88620334e-004
      4.36532428e-004 1.70354120e-004 3.77973221e-004 6.17533689e-004
      1.62368780e-003 1.58109912e-003 2.60854751e-004 1.94310176e-003
      3.46031826e-004 5.85592294e-004 3.62002495e-004 2.80019594e-003
      1.68224704e-003 3.56678938e-004 2.71501893e-004 3.88620334e-004
      1.55980489e-003 5.85592294e-004 1.92713109e-003 2.80551938e-003
      1.36815652e-003 1.73015916e-003 1.33089154e-004 1.44801009e-003
      1.65562914e-003 3.82232061e-003 1.35218585e-003 1.35484766e-002
      8.98085721e-003 1.12859614e-003 1.37880363e-003 1.13391958e-003
      1.63965835e-003 3.35384684e-004 1.63433491e-003 2.06554378e-003
      1.67159992e-003 9.58241988e-004 2.66178336e-004 9.36947647e-004
      2.71501893e-004 3.72649636e-004 2.12942658e-004 1.53851067e-003
      7.35716894e-003 1.15521392e-003 1.40009797e-003 9.52918315e-004
      1.10038118e-002 1.78871816e-003 9.55047831e-003 7.69255310e-003
      1.35218585e-003 9.90183325e-004 1.59706993e-004 7.50622887e-004
      1.12859602e-003 1.55980501e-003 1.07536046e-003 6.20195456e-003
      1.28191477e-002 1.63965835e-003 1.51189277e-003 1.81001250e-003
      1.79936551e-003 5.53650898e-004 1.69289415e-003 3.82232061e-003
      1.18023464e-002 7.25069735e-003 1.07536034e-003 6.54266309e-003
      1.70354126e-003 2.23589782e-003 1.37348007e-003 1.22175850e-002
      1.12433722e-002 1.68757059e-003 1.17118459e-003 1.35750941e-003
      7.31990393e-003 2.23057438e-003 6.36698538e-003 1.22175850e-002
      8.83712061e-003 6.14339579e-003 9.10329865e-004 4.94559295e-003
      6.13274844e-003 1.08866934e-002 4.84976918e-003 4.56761979e-002</_>
    <_>
      1.80043012e-001 2.02029347e-002 2.04211995e-002 1.05300145e-002
      1.96812265e-002 6.03160076e-003 1.01520410e-002 1.02212466e-002
      1.78978294e-002 9.44933016e-003 4.04058676e-003 7.01646041e-003
      3.44967097e-003 2.89602019e-003 2.81616650e-003 7.86290783e-003
      1.78978313e-002 3.46564152e-003 3.87555640e-003 2.77890172e-003
      9.32156481e-003 2.91199074e-003 6.73431111e-003 7.39975739e-003
      2.95990286e-003 1.90583675e-003 1.19247893e-003 2.10813223e-003
      1.92713109e-003 2.09216145e-003 2.13475013e-003 6.61719311e-003
      1.48474267e-002 4.63150255e-003 3.11960978e-003 2.67243036e-003
      2.73631304e-003 1.33621506e-003 1.69821770e-003 2.44884053e-003
      7.38910958e-003 7.66593497e-003 2.24654516e-003 6.34569069e-003
      1.53851067e-003 2.24654516e-003 1.40009797e-003 5.91980573e-003
      2.58192979e-003 9.90183325e-004 8.51770630e-004 9.68889100e-004
      1.37880363e-003 8.89035582e-004 1.05406612e-003 2.33172206e-003
      1.45333353e-003 1.51721644e-003 6.70769368e-004 2.01763166e-003
      1.10730180e-003 1.70886482e-003 1.35218585e-003 5.82398102e-003
      1.53744593e-002 2.92796153e-003 2.95990286e-003 1.92180742e-003
      3.09299212e-003 1.08600757e-003 1.85260107e-003 1.82598329e-003
      2.91199074e-003 2.25186860e-003 1.05406612e-003 1.95374899e-003
      9.05006309e-004 1.05406612e-003 7.39975716e-004 2.20928015e-003
      3.07702110e-003 8.51770630e-004 1.05406623e-003 7.02710706e-004
      2.26251571e-003 9.95506882e-004 1.88986608e-003 2.24654516e-003
      9.15653422e-004 6.22857246e-004 4.68473852e-004 9.42271261e-004
      6.44151529e-004 8.41123518e-004 9.31624090e-004 3.00781499e-003
      6.30842568e-003 2.12410279e-003 1.43736287e-003 1.67692348e-003
      1.35750941e-003 8.41123518e-004 1.18715526e-003 1.71418837e-003
      4.59956145e-003 5.13724145e-003 1.46930432e-003 4.78588603e-003
      9.95506882e-004 1.85792462e-003 1.18715526e-003 5.31291962e-003
      1.71951205e-003 8.03858507e-004 5.90915908e-004 7.18681491e-004
      1.11794891e-003 5.96239464e-004 1.21377315e-003 2.13475013e-003
      1.31492096e-003 1.61304069e-003 6.76092925e-004 2.29445705e-003
      9.90183325e-004 1.87921885e-003 1.46398076e-003 7.87887815e-003
      1.53691368e-002 2.80019571e-003 2.95457919e-003 1.66627625e-003
      4.63150302e-003 1.41074508e-003 2.55531189e-003 2.29445705e-003
      2.59790057e-003 1.48527510e-003 7.98534951e-004 1.10197824e-003
      9.90183325e-004 8.89035524e-004 9.90183325e-004 2.48610554e-003
      7.51687586e-003 1.64498203e-003 2.23589782e-003 1.51189289e-003
      7.66593544e-003 2.05489667e-003 5.95174730e-003 5.53118531e-003
      1.43203931e-003 1.13924325e-003 6.49475085e-004 1.42139220e-003
      1.51721644e-003 1.63433491e-003 1.84195396e-003 5.61103877e-003
      3.23140481e-003 1.17650814e-003 8.94359138e-004 8.03858507e-004
      1.10197812e-003 3.62002524e-004 7.87887780e-004 1.11794891e-003
      1.90051319e-003 1.64498203e-003 7.18681491e-004 1.88454241e-003
      7.55946443e-004 9.58241988e-004 7.02710764e-004 2.89602019e-003
      1.88454241e-003 7.55946443e-004 7.77240726e-004 8.09182064e-004
      1.83663040e-003 9.58241930e-004 1.87389541e-003 2.81616673e-003
      1.26168528e-003 1.30427373e-003 5.96239464e-004 1.87921897e-003
      1.37880375e-003 2.08683801e-003 1.70354126e-003 9.76342149e-003
      6.68639969e-003 1.32556807e-003 1.50656921e-003 1.05938967e-003
      2.24122126e-003 8.57094186e-004 1.67692336e-003 1.73548260e-003
      1.68224692e-003 1.22974382e-003 5.53650898e-004 1.22442027e-003
      7.82564282e-004 7.02710764e-004 7.18681433e-004 2.11877935e-003
      4.88171028e-003 1.04341900e-003 1.53318711e-003 1.19780248e-003
      5.53118531e-003 1.86857174e-003 4.78588650e-003 5.40874340e-003
      1.28830306e-003 1.05938967e-003 6.86740037e-004 1.41074520e-003
      1.78871839e-003 2.05489667e-003 2.29445705e-003 7.69787701e-003
      5.11062331e-003 1.44268642e-003 1.20844960e-003 1.29895017e-003
      1.59706990e-003 7.98534951e-004 1.27765595e-003 2.08683801e-003
      3.62002500e-003 3.82232084e-003 1.42139220e-003 4.15238179e-003
      1.25636160e-003 2.26783939e-003 1.63965847e-003 8.57094210e-003
      4.08317521e-003 1.41074508e-003 1.38412719e-003 1.62368780e-003
      4.21094103e-003 2.34769285e-003 4.05655755e-003 8.57094210e-003
      2.95457942e-003 3.64131946e-003 1.58109923e-003 5.87721728e-003
      3.85426218e-003 7.37846317e-003 6.05821842e-003 4.42068949e-002</_>
    <_>
      1.04503311e-001 1.05408393e-002 1.33995581e-002 1.07836640e-002
      1.12472409e-002 2.32891832e-003 1.09271519e-002 2.21302416e-002
      1.19757177e-002 1.01103745e-002 2.70419428e-003 1.37527594e-002
      1.89845474e-003 2.19646795e-003 2.33995588e-003 3.00772619e-002
      1.19757177e-002 1.28035317e-003 2.08609272e-003 1.75496680e-003
      1.05849886e-002 1.42384111e-003 1.13907279e-002 1.66114792e-002
      2.49448116e-003 1.05960260e-003 2.64900649e-004 1.28035317e-003
      1.40176609e-003 1.07064028e-003 1.36865338e-003 1.41169978e-002
      9.10595991e-003 2.06401758e-003 1.52317877e-003 1.85430469e-003
      8.94039753e-004 3.53200885e-004 9.60264879e-004 1.47902872e-003
      8.71964730e-003 2.10154541e-002 1.98675506e-003 2.52980143e-002
      9.27152345e-004 1.81015464e-003 7.94701977e-004 1.12251658e-002
      1.77704194e-003 2.75938190e-004 2.75938190e-004 2.09713020e-004
      8.49889591e-004 2.20750546e-004 7.83664407e-004 1.08167774e-003
      1.16997794e-003 1.15894037e-003 1.65562902e-004 1.25827815e-003
      7.94701977e-004 1.71081675e-003 8.05739546e-004 6.73289225e-003
      1.05518764e-002 1.53421622e-003 2.49448116e-003 1.33554079e-003
      1.58940395e-003 2.98013241e-004 1.16997794e-003 1.09271531e-003
      1.75496691e-003 1.86534203e-003 2.86975701e-004 1.34657836e-003
      2.20750546e-004 2.75938190e-004 1.65562902e-004 1.49006629e-003
      2.37306836e-003 1.87637954e-004 2.86975701e-004 1.54525376e-004
      1.99779239e-003 2.98013212e-004 1.33554079e-003 1.12582778e-003
      3.09050782e-004 1.32450339e-004 0. 1.43487865e-004 1.54525391e-004
      1.54525391e-004 1.43487850e-004 9.93377529e-004 8.04635696e-003
      1.41280342e-003 8.94039753e-004 9.60264879e-004 8.05739488e-004
      2.64900649e-004 5.73951460e-004 1.15894049e-003 7.88079482e-003
      1.95805728e-002 1.15894037e-003 1.35099329e-002 7.72626896e-004
      1.43487856e-003 5.73951402e-004 6.34657871e-003 2.09713029e-003
      2.31788086e-004 1.43487850e-004 1.87637954e-004 5.84988971e-004
      2.20750546e-004 6.95364201e-004 8.16777057e-004 1.22516556e-003
      9.49227368e-004 1.65562902e-004 8.71964672e-004 7.28476851e-004
      1.08167774e-003 5.18763787e-004 4.79028700e-003 8.39955825e-003
      1.18101540e-003 1.46799115e-003 1.01545255e-003 2.06401758e-003
      2.98013241e-004 1.65562914e-003 1.79911708e-003 1.15894037e-003
      8.94039753e-004 2.42825598e-004 8.38852080e-004 2.75938190e-004
      2.86975730e-004 2.09713005e-004 2.01986753e-003 8.24503228e-003
      9.71302390e-004 1.85430469e-003 9.38189856e-004 2.10154541e-002
      1.71081675e-003 2.46357620e-002 9.53642372e-003 8.27814569e-004
      6.18101563e-004 1.43487850e-004 7.28476793e-004 1.15894037e-003
      1.63355400e-003 1.20309042e-003 7.09713018e-003 1.79911708e-003
      2.86975730e-004 2.53863138e-004 2.53863138e-004 3.42163374e-004
      8.83002213e-005 2.86975701e-004 3.86313477e-004 1.07064005e-003
      1.41280354e-003 1.65562902e-004 1.51214120e-003 2.31788057e-004
      4.08388529e-004 2.09713035e-004 2.24061823e-003 1.84326712e-003
      2.98013270e-004 1.43487850e-004 1.98675494e-004 1.51214120e-003
      4.08388529e-004 1.49006629e-003 1.81015464e-003 8.49889591e-004
      1.01545255e-003 2.20750546e-004 1.10375276e-003 1.09271531e-003
      2.93598231e-003 1.14790292e-003 1.03311259e-002 7.90286995e-003
      8.60927161e-004 1.05960260e-003 8.38852138e-004 1.61147909e-003
      2.31788086e-004 9.60264937e-004 1.57836650e-003 1.51214120e-003
      7.28476793e-004 1.32450325e-004 8.83002183e-004 2.31788086e-004
      2.09713035e-004 1.87637954e-004 1.56732893e-003 1.02428254e-002
      8.27814569e-004 1.16997794e-003 7.61589443e-004 2.02428252e-002
      1.45695359e-003 1.35099329e-002 6.94260467e-003 1.13686535e-003
      6.51214155e-004 1.65562902e-004 4.96688765e-004 1.00441510e-003
      1.03752757e-003 8.71964614e-004 5.32008847e-003 1.99006628e-002
      1.74392946e-003 1.22516556e-003 1.56732893e-003 1.42384111e-003
      4.30463580e-004 1.14790292e-003 2.93598231e-003 1.48013253e-002
      7.20750634e-003 7.17439281e-004 5.96026517e-003 9.27152345e-004
      1.40176609e-003 6.18101563e-004 9.15010925e-003 2.82671098e-002
      1.86534214e-003 1.08167774e-003 1.36865349e-003 8.89624748e-003
      1.83222955e-003 5.36423875e-003 9.15011019e-003 1.29028698e-002
      5.57395164e-003 7.50551873e-004 4.65783663e-003 5.20971324e-003
      7.96909537e-003 4.12803562e-003 3.16997804e-002</_>
    <_>
      9.41280350e-002 8.55408330e-003 1.40176602e-002 9.60264914e-003
      9.22737271e-003 1.28035317e-003 9.87858791e-003 1.61147900e-002
      1.37086101e-002 9.32671130e-003 2.26269290e-003 1.37637975e-002
      1.69977930e-003 1.52317877e-003 2.05298001e-003 2.19977926e-002
      1.37086101e-002 1.63355400e-003 2.25165579e-003 1.96467992e-003
      9.72406194e-003 1.54525391e-003 1.32671082e-002 2.23289169e-002
      2.49448116e-003 1.03752757e-003 2.20750560e-004 1.10375276e-003
      1.03752757e-003 8.60927161e-004 1.18101540e-003 1.13796908e-002
      8.02428275e-003 1.31346576e-003 1.63355400e-003 1.62251655e-003
      1.14790280e-003 1.87637954e-004 1.03752757e-003 1.45695359e-003
      9.51434858e-003 1.50883002e-002 2.05298001e-003 2.17439309e-002
      9.71302507e-004 1.39072852e-003 1.44591613e-003 1.18101556e-002
      1.53421634e-003 2.42825598e-004 1.43487850e-004 1.87637983e-004
      1.01545255e-003 2.64900678e-004 1.35761593e-003 2.28476827e-003
      1.02649012e-003 1.08167774e-003 2.31788086e-004 9.71302448e-004
      7.28476851e-004 1.42384111e-003 8.38852138e-004 7.19646784e-003
      1.33995581e-002 1.53421634e-003 2.49448116e-003 1.11479033e-003
      1.54525391e-003 2.75938190e-004 9.71302448e-004 1.18101540e-003
      2.17439281e-003 2.08609272e-003 1.98675494e-004 1.09271519e-003
      1.98675494e-004 2.31788086e-004 2.09713035e-004 1.13686535e-003
      2.18543038e-003 2.31788086e-004 1.98675494e-004 1.87637983e-004
      2.09713029e-003 3.31125833e-004 1.13686535e-003 1.02649000e-003
      1.76600443e-004 1.54525391e-004 8.83002213e-005 1.87637983e-004
      1.43487865e-004 2.86975701e-004 1.54525376e-004 9.05077206e-004
      9.23841074e-003 1.29139074e-003 9.49227368e-004 9.27152345e-004
      8.94039753e-004 1.98675494e-004 7.61589385e-004 1.19205297e-003
      1.16887409e-002 2.06953641e-002 1.19205297e-003 1.08830016e-002
      1.44591613e-003 2.19646795e-003 8.60927161e-004 6.77704206e-003
      2.17439304e-003 3.42163316e-004 1.98675494e-004 2.42825598e-004
      1.31346576e-003 2.20750560e-004 8.60927103e-004 1.72185432e-003
      1.18101551e-003 8.71964672e-004 1.43487850e-004 8.49889591e-004
      8.16777057e-004 1.63355411e-003 7.39514362e-004 5.38631342e-003
      7.35099288e-003 1.05960271e-003 1.62251655e-003 1.12582778e-003
      1.31346588e-003 1.10375273e-004 1.46799115e-003 1.39072840e-003
      1.46799115e-003 1.04856514e-003 1.76600443e-004 1.37969095e-003
      2.42825598e-004 1.65562902e-004 2.64900678e-004 2.51655653e-003
      9.11699794e-003 1.00441498e-003 2.04194267e-003 1.37969106e-003
      1.50883002e-002 1.63355400e-003 2.24172175e-002 1.17770415e-002
      1.02649000e-003 8.38852022e-004 2.42825598e-004 9.27152345e-004
      1.08167774e-003 1.26931572e-003 1.00441498e-003 7.53863156e-003
      1.34657836e-003 1.43487850e-004 2.09713005e-004 2.42825612e-004
      2.20750546e-004 0. 2.31788086e-004 2.20750546e-004 1.39072852e-003
      1.45695359e-003 2.98013241e-004 2.41721841e-003 2.75938190e-004
      2.31788086e-004 1.43487865e-004 2.36203102e-003 1.36865349e-003
      1.76600443e-004 1.98675480e-004 1.10375273e-004 1.21412799e-003
      2.31788086e-004 2.40618107e-003 2.32891832e-003 9.93377529e-004
      1.22516556e-003 1.98675480e-004 1.79911708e-003 1.37969095e-003
      4.08388535e-003 1.60044152e-003 1.14459163e-002 8.96247290e-003
      9.82339960e-004 1.09271519e-003 8.05739488e-004 1.44591613e-003
      2.09713005e-004 9.27152345e-004 1.25827827e-003 2.08609272e-003
      1.24724070e-003 1.76600443e-004 8.83002183e-004 2.64900649e-004
      1.87637954e-004 2.42825598e-004 1.57836638e-003 1.21854302e-002
      1.46799115e-003 1.14790280e-003 8.83002183e-004 2.00220738e-002
      2.20750552e-003 1.08830025e-002 7.13024288e-003 1.10375276e-003
      9.05077322e-004 1.76600443e-004 7.17439223e-004 8.38852022e-004
      1.83222955e-003 8.49889591e-004 6.04856526e-003 1.40618095e-002
      1.39072840e-003 9.82339960e-004 1.45695359e-003 1.45695370e-003
      2.42825598e-004 1.39072840e-003 4.08388535e-003 2.04415005e-002
      1.12141278e-002 7.06401770e-004 6.69977954e-003 2.09713029e-003
      1.94260501e-003 1.85430469e-003 1.11368652e-002 2.01103762e-002
      2.32891832e-003 8.16777057e-004 1.71081687e-003 1.12472419e-002
      1.97571749e-003 6.34657824e-003 1.11368652e-002 1.03863133e-002
      6.28035329e-003 7.94701977e-004 5.60706388e-003 5.93819004e-003
      1.08278142e-002 4.94481204e-003 3.95143479e-002</_>
    <_>
      1.19426049e-001 1.15121417e-002 1.69426054e-002 1.21302428e-002
      1.09271519e-002 2.47240625e-003 1.16004422e-002 1.03752762e-002
      1.66445915e-002 1.11699775e-002 3.06843268e-003 1.18763791e-002
      2.26269313e-003 2.26269313e-003 2.50551896e-003 9.76821221e-003
      1.66445915e-002 2.28476827e-003 3.23399575e-003 2.19646795e-003
      1.13245035e-002 2.20750552e-003 1.18101547e-002 1.02207502e-002
      2.09713029e-003 1.61147898e-003 2.75938190e-004 1.89845474e-003
      1.63355400e-003 1.57836650e-003 1.69977930e-003 7.31788110e-003
      1.04083885e-002 2.00883020e-003 2.04194267e-003 1.89845474e-003
      1.82119198e-003 5.29801298e-004 2.09713029e-003 2.27373070e-003
      1.05518773e-002 9.07284766e-003 2.04194244e-003 8.67549609e-003
      2.13024276e-003 2.03090510e-003 2.06401758e-003 9.56953596e-003
      1.98675506e-003 3.09050782e-004 4.08388500e-004 4.41501092e-004
      1.90949230e-003 4.74613684e-004 2.29580561e-003 2.56070634e-003
      1.56732905e-003 1.55629148e-003 2.75938190e-004 1.45695359e-003
      1.43487856e-003 1.56732893e-003 1.47902872e-003 9.24944784e-003
      1.63465776e-002 2.22958066e-003 2.09713029e-003 1.67770428e-003
      2.17439304e-003 2.86975701e-004 1.58940395e-003 1.65562914e-003
      2.82560708e-003 2.28476827e-003 2.86975701e-004 1.71081675e-003
      4.52538661e-004 3.86313477e-004 2.86975701e-004 1.57836638e-003
      2.66004400e-003 4.74613684e-004 2.86975730e-004 2.98013241e-004
      2.21854309e-003 3.53200856e-004 1.65562914e-003 1.53421634e-003
      2.98013270e-004 3.64238396e-004 4.41501106e-005 2.20750546e-004
      3.97350988e-004 3.31125833e-004 2.31788057e-004 1.13686535e-003
      9.59161203e-003 1.84326712e-003 1.50110363e-003 1.54525391e-003
      1.78807951e-003 5.29801357e-004 1.49006618e-003 1.41280366e-003
      1.01545257e-002 8.41059629e-003 1.41280354e-003 6.39072899e-003
      2.20750552e-003 2.38410593e-003 1.53421634e-003 8.75275955e-003
      2.13024276e-003 2.53863138e-004 3.42163374e-004 3.86313477e-004
      1.98675506e-003 3.64238396e-004 1.57836638e-003 1.90949230e-003
      1.22516556e-003 1.16997794e-003 2.42825612e-004 1.03752769e-003
      1.44591613e-003 2.06401758e-003 1.09271519e-003 7.54966866e-003
      1.09933782e-002 1.84326712e-003 2.09713029e-003 2.09713029e-003
      2.00882996e-003 5.18763787e-004 1.96467992e-003 2.30684318e-003
      2.00882996e-003 1.75496703e-003 4.30463580e-004 1.94260490e-003
      3.09050753e-004 5.73951460e-004 3.53200885e-004 2.57174391e-003
      1.03973513e-002 1.97571749e-003 2.10816762e-003 1.92052976e-003
      9.07284766e-003 2.01986753e-003 9.19426046e-003 1.01545248e-002
      1.54525379e-003 1.58940395e-003 2.42825598e-004 1.58940395e-003
      1.55629136e-003 1.42384111e-003 1.32450333e-003 8.76379665e-003
      1.54525391e-003 5.07726276e-004 3.31125833e-004 5.18763787e-004
      5.18763787e-004 8.83002213e-005 5.18763845e-004 5.51876379e-004
      1.47902861e-003 1.92052976e-003 3.09050782e-004 2.20750552e-003
      4.74613684e-004 5.84988971e-004 3.31125804e-004 3.00220749e-003
      1.53421634e-003 5.73951460e-004 3.42163374e-004 3.64238396e-004
      1.93156733e-003 5.84988971e-004 2.24061823e-003 3.13465809e-003
      1.51214132e-003 1.39072852e-003 4.41501092e-004 1.60044141e-003
      1.53421634e-003 2.16335547e-003 1.90949230e-003 1.24172177e-002
      1.01214135e-002 1.78807939e-003 1.58940395e-003 1.53421634e-003
      1.77704194e-003 5.29801357e-004 1.54525391e-003 1.44591625e-003
      1.82119198e-003 1.84326712e-003 3.53200885e-004 1.50110363e-003
      3.42163316e-004 3.97350988e-004 3.86313477e-004 1.97571749e-003
      1.02207502e-002 1.85430469e-003 1.46799127e-003 1.45695370e-003
      7.89183192e-003 2.35099345e-003 6.39072899e-003 8.49889591e-003
      1.42384111e-003 1.55629148e-003 2.31788086e-004 1.15894037e-003
      1.30242831e-003 1.75496703e-003 1.03752757e-003 7.50551838e-003
      7.77041959e-003 1.67770416e-003 1.45695359e-003 1.54525391e-003
      1.64459157e-003 6.18101563e-004 1.51214143e-003 2.16335547e-003
      7.31788110e-003 9.08388570e-003 1.04856514e-003 7.61589408e-003
      2.01986753e-003 2.73730699e-003 1.68874173e-003 1.19315675e-002
      6.86534168e-003 2.03090510e-003 1.09271519e-003 1.75496691e-003
      8.49889591e-003 2.60485662e-003 7.86975678e-003 1.19315675e-002
      5.46357594e-003 7.11920531e-003 9.38189856e-004 6.35761581e-003
      7.60485651e-003 1.14459153e-002 6.40176563e-003 5.06401770e-002</_>
    <_>
      1.33509934e-001 1.46026490e-002 1.76931582e-002 1.13134654e-002
      1.47792492e-002 3.06843268e-003 1.14459153e-002 8.11258331e-003
      1.70198679e-002 1.11699775e-002 3.60927172e-003 8.54304619e-003
      3.10154515e-003 2.21854309e-003 2.35099345e-003 7.51655595e-003
      1.70198679e-002 3.14569520e-003 3.74172186e-003 2.30684318e-003
      1.08057400e-002 2.21854309e-003 8.00220761e-003 7.61589408e-003
      2.25165556e-003 1.87637971e-003 5.62913890e-004 2.13024300e-003
      1.99779263e-003 2.01986753e-003 1.95364235e-003 6.01545256e-003
      1.21523179e-002 2.54966877e-003 2.91390717e-003 2.14128033e-003
      1.90949230e-003 7.94701977e-004 2.11920543e-003 2.39514350e-003
      8.88520945e-003 6.71081711e-003 2.26269336e-003 6.98675495e-003
      2.06401758e-003 2.15231813e-003 1.74392934e-003 8.37748311e-003
      2.57174391e-003 6.40176586e-004 6.95364201e-004 4.41501092e-004
      2.04194267e-003 6.95364259e-004 1.58940395e-003 2.14128033e-003
      1.87637971e-003 1.55629124e-003 4.74613713e-004 1.76600425e-003
      1.60044152e-003 1.98675506e-003 1.83222955e-003 8.11258238e-003
      1.63465794e-002 2.80353217e-003 2.25165556e-003 1.83222955e-003
      2.80353194e-003 7.39514362e-004 1.99779239e-003 1.69977918e-003
      3.41059593e-003 1.87637983e-003 5.73951402e-004 1.96467992e-003
      6.51214097e-004 6.51214097e-004 4.96688706e-004 1.75496680e-003
      3.27814580e-003 6.29139133e-004 5.73951460e-004 4.52538661e-004
      2.37306859e-003 5.29801298e-004 1.71081675e-003 1.71081675e-003
      5.84988971e-004 4.85651195e-004 2.20750546e-004 4.41501092e-004
      5.40838868e-004 5.29801298e-004 4.52538632e-004 2.14128033e-003
      8.74172151e-003 1.78807951e-003 1.92052987e-003 1.86534226e-003
      1.90949230e-003 6.73289178e-004 1.52317877e-003 2.05298024e-003
      5.91611490e-003 6.00441452e-003 1.53421634e-003 5.00000035e-003
      1.57836638e-003 2.24061799e-003 1.39072840e-003 7.14128045e-003
      1.83222955e-003 6.95364201e-004 5.07726276e-004 5.29801357e-004
      1.35761581e-003 7.39514362e-004 1.63355400e-003 1.95364235e-003
      1.36865349e-003 1.37969106e-003 4.19426040e-004 1.82119198e-003
      1.46799115e-003 2.05298001e-003 1.33554079e-003 8.12362041e-003
      1.19757177e-002 2.54966877e-003 2.91390717e-003 2.27373070e-003
      2.54966901e-003 7.72626896e-004 2.16335547e-003 2.30684318e-003
      2.61589419e-003 2.11920543e-003 6.73289236e-004 1.75496680e-003
      6.40176586e-004 6.73289178e-004 5.73951402e-004 2.18543038e-003
      9.24944878e-003 2.14128033e-003 1.76600448e-003 1.79911696e-003
      6.71081711e-003 2.31788075e-003 6.72185421e-003 8.13465752e-003
      1.75496680e-003 1.51214132e-003 4.19426069e-004 1.72185432e-003
      1.55629148e-003 2.07505515e-003 1.40176597e-003 7.82560743e-003
      2.03090510e-003 6.62251667e-004 5.40838868e-004 5.62913949e-004
      6.84326689e-004 1.32450325e-004 5.62913949e-004 8.27814569e-004
      1.71081675e-003 2.11920519e-003 4.85651195e-004 1.97571749e-003
      5.62913890e-004 8.27814569e-004 6.18101563e-004 3.18984524e-003
      1.71081687e-003 5.40838810e-004 6.07063994e-004 6.95364201e-004
      1.95364235e-003 8.27814511e-004 2.10816786e-003 3.14569543e-003
      1.71081675e-003 1.71081675e-003 5.29801298e-004 1.79911708e-003
      1.62251655e-003 2.22958066e-003 2.06401781e-003 1.32339960e-002
      8.60927161e-003 2.06401781e-003 1.75496691e-003 1.58940407e-003
      1.76600448e-003 6.73289178e-004 1.86534214e-003 2.04194267e-003
      1.78807951e-003 1.41280354e-003 4.63576143e-004 1.79911684e-003
      5.62913949e-004 8.16776999e-004 5.29801298e-004 2.16335547e-003
      6.45695347e-003 1.74392946e-003 1.78807951e-003 1.55629136e-003
      6.26931572e-003 2.10816786e-003 4.99999989e-003 7.16335559e-003
      1.54525391e-003 1.35761581e-003 4.08388500e-004 1.44591613e-003
      1.74392946e-003 1.78807939e-003 1.82119210e-003 7.82560743e-003
      5.30905090e-003 1.87637983e-003 1.41280354e-003 1.64459157e-003
      1.96467992e-003 8.27814569e-004 1.65562914e-003 2.22958066e-003
      5.47461398e-003 5.92715247e-003 1.39072852e-003 6.69977907e-003
      2.03090510e-003 2.46136845e-003 1.68874173e-003 1.23951435e-002
      5.37527585e-003 2.07505515e-003 1.43487845e-003 1.89845474e-003
      6.16997760e-003 2.50551873e-003 6.67770486e-003 1.23951435e-002
      3.98454769e-003 5.72847715e-003 1.50110386e-003 6.29139040e-003
      6.01545256e-003 1.15562910e-002 6.58940431e-003 5.81456944e-002</_>
    <_>
      1.35111108e-001 1.53999999e-002 1.71555560e-002 1.18666673e-002
      1.54999997e-002 3.62222223e-003 1.20111117e-002 1.31000010e-002
      1.54555552e-002 1.14888884e-002 3.02222231e-003 1.09999999e-002
      2.45555560e-003 2.34444439e-003 2.36666668e-003 1.22222221e-002
      1.54555552e-002 2.48888880e-003 3.22222221e-003 2.52222223e-003
      1.08888885e-002 2.26666662e-003 1.18555557e-002 1.25000011e-002
      2.15555565e-003 1.52222218e-003 4.44444449e-004 1.66666671e-003
      1.57777779e-003 1.40000007e-003 1.71111105e-003 9.27777775e-003
      1.28888898e-002 3.10000009e-003 2.25555548e-003 2.14444427e-003
      2.02222215e-003 7.44444435e-004 1.62222225e-003 2.21111113e-003
      9.43333283e-003 1.08222226e-002 2.17777770e-003 1.02333333e-002
      1.67777773e-003 2.04444444e-003 1.46666670e-003 9.92222223e-003
      2.14444450e-003 4.88888880e-004 5.66666655e-004 5.66666713e-004
      1.62222225e-003 5.33333339e-004 1.92222232e-003 2.10000016e-003
      1.33333332e-003 1.61111122e-003 4.00000019e-004 1.23333337e-003
      9.88888904e-004 1.39999995e-003 1.33333332e-003 7.13333348e-003
      1.37555553e-002 2.37777783e-003 2.15555565e-003 1.50000001e-003
      2.26666685e-003 5.66666655e-004 1.50000001e-003 1.90000015e-003
      3.11111100e-003 2.26666662e-003 4.77777794e-004 1.53333333e-003
      6.55555574e-004 5.22222253e-004 3.66666645e-004 1.37777778e-003
      2.91111111e-003 5.44444483e-004 4.77777794e-004 4.11111105e-004
      2.13333336e-003 5.33333339e-004 1.79999997e-003 1.46666658e-003
      5.11111110e-004 3.88888904e-004 1.33333335e-004 3.99999990e-004
      4.00000019e-004 4.77777765e-004 4.44444420e-004 1.52222230e-003
      9.05555580e-003 1.96666666e-003 1.35555561e-003 1.21111108e-003
      1.65555545e-003 4.66666708e-004 9.66666674e-004 1.50000001e-003
      9.42222215e-003 1.02444449e-002 1.60000008e-003 7.72222225e-003
      1.89999992e-003 2.05555558e-003 1.22222223e-003 6.93333335e-003
      1.92222220e-003 4.66666679e-004 3.77777760e-004 4.00000019e-004
      1.34444446e-003 3.77777789e-004 1.07777771e-003 1.72222219e-003
      1.46666658e-003 1.24444440e-003 4.88888880e-004 1.43333338e-003
      1.25555554e-003 1.70000002e-003 1.05555553e-003 7.24444445e-003
      1.27888890e-002 1.97777781e-003 2.36666668e-003 1.72222231e-003
      3.10000032e-003 7.33333349e-004 2.02222215e-003 2.16666679e-003
      2.17777770e-003 1.70000014e-003 4.55555564e-004 1.74444448e-003
      4.88888880e-004 4.77777794e-004 6.55555574e-004 2.15555565e-003
      1.00333337e-002 1.75555551e-003 2.31111096e-003 1.47777784e-003
      1.08222216e-002 2.07777787e-003 1.04111116e-002 1.03444448e-002
      1.27777772e-003 9.66666732e-004 3.88888875e-004 1.18888891e-003
      1.61111122e-003 1.59999996e-003 1.44444441e-003 7.08888890e-003
      2.57777772e-003 6.11111114e-004 4.11111105e-004 4.55555535e-004
      6.22222258e-004 3.55555560e-004 4.11111134e-004 8.77777755e-004
      1.76666677e-003 1.87777786e-003 5.11111110e-004 1.92222232e-003
      4.44444449e-004 8.33333295e-004 2.88888899e-004 2.65555549e-003
      1.84444443e-003 3.88888875e-004 4.99999966e-004 2.44444469e-004
      1.84444443e-003 8.33333295e-004 2.06666673e-003 2.63333344e-003
      1.02222222e-003 1.47777784e-003 3.22222215e-004 1.56666664e-003
      1.27777783e-003 2.31111096e-003 1.72222219e-003 9.39999986e-003
      8.91111046e-003 1.75555563e-003 1.35555561e-003 9.88888904e-004
      2.08888901e-003 5.11111110e-004 1.21111108e-003 1.57777779e-003
      2.07777764e-003 1.35555549e-003 4.22222249e-004 1.22222223e-003
      3.77777789e-004 3.33333330e-004 4.00000019e-004 1.72222219e-003
      8.56666639e-003 1.72222219e-003 1.33333332e-003 1.36666675e-003
      1.00666666e-002 1.91111118e-003 7.72222225e-003 6.68888912e-003
      1.42222224e-003 1.11111114e-003 4.44444420e-004 1.12222228e-003
      1.03333336e-003 1.54444436e-003 1.43333327e-003 6.91111106e-003
      8.54444504e-003 1.71111117e-003 1.32222218e-003 1.37777789e-003
      1.75555551e-003 7.88888836e-004 1.30000000e-003 2.31111096e-003
      8.25555529e-003 8.07777792e-003 1.09999999e-003 6.06666692e-003
      1.82222214e-003 2.27777800e-003 1.54444459e-003 8.73333402e-003
      7.97777809e-003 1.87777786e-003 1.01111119e-003 1.54444436e-003
      7.65555538e-003 2.30000005e-003 6.31111115e-003 8.73333309e-003
      6.16666675e-003 5.86666679e-003 1.34444446e-003 5.86666632e-003
      5.91111090e-003 8.06666724e-003 6.19999971e-003 3.88888903e-002</_></support_vectors>
  <decision_functions>
    <_>
      <sv_count>2</sv_count>
      <rho>0.</rho>
      <alpha>
        1. -1.</alpha>
      <index>
        0 1</index></_>
    <_>
      <sv_count>2</sv_count>
      <rho>0.</rho>
      <alpha>
        1. -1.</alpha>
      <index>
        0 2</index></_>
    <_>
      <sv_count>2</sv_count>
      <rho>0.</rho>
      <alpha>
        1. -1.</alpha>
      <index>
        0 3</index></_>
    <_>
      <sv_count>2</sv_count>
      <rho>0.</rho>
      <alpha>
        1. -1.</alpha>
      <index>
        0 4</index></_>
    <_>
      <sv_count>2</sv_count>
      <rho>0.</rho>
      <alpha>
        1. -1.</alpha>
      <index>
        0 5</index></_>
    <_>
      <sv_count>2</sv_count>
      <rho>0.</rho>
      <alpha>
        1. -1.</alpha>
      <index>
        0 6</index></_>
    <_>
      <sv_count>2</sv_count>
      <rho>0.</rho>
      <alpha>
        1. -1.</alpha>
      <index>
        0 7</index></_>
    <_>
      <sv_count>2</sv_count>
      <rho>0.</rho>
      <alpha>
        1. -1.</alpha>
      <index>
        1 2</index></_>
    <_>
      <sv_count>2</sv_count>
      <rho>0.</rho>
      <alpha>
        1. -1.</alpha>
      <index>
        1 3</index></_>
    <_>
      <sv_count>2</sv_count>
      <rho>0.</rho>
      <alpha>
        1. -1.</alpha>
      <index>
        1 4</index></_>
    <_>
      <sv_count>2</sv_count>
      <rho>0.</rho>
      <alpha>
        1. -1.</alpha>
      <index>
        1 5</index></_>
    <_>
      <sv_count>2</sv_count>
      <rho>0.</rho>
      <alpha>
        1. -1.</alpha>
      <index>
        1 6</index></_>
    <_>
      <sv_count>2</sv_count>
      <rho>0.</rho>
      <alpha>
        1. -1.</alpha>
      <index>
        1 7</index></_>
    <_>
      <sv_count>2</sv_count>
      <rho>0.</rho>
      <alpha>
        1. -1.</alpha>
      <index>
        2 3</index></_>
    <_>
      <sv_count>2</sv_count>
      <rho>0.</rho>
      <alpha>
        1. -1.</alpha>
      <index>
        2 4</index></_>
    <_>
      <sv_count>2</sv_count>
      <rho>0.</rho>
      <alpha>
        1. -1.</alpha>
      <index>
        2 5</index></_>
    <_>
      <sv_count>2</sv_count>
      <rho>0.</rho>
      <alpha>
        1. -1.</alpha>
      <index>
        2 6</index></_>
    <_>
      <sv_count>2</sv_count>
      <rho>0.</rho>
      <alpha>
        1. -1.</alpha>
      <index>
        2 7</index></_>
    <_>
      <sv_count>2</sv_count>
      <rho>0.</rho>
      <alpha>
        1. -1.</alpha>
      <index>
        3 4</index></_>
    <_>
      <sv_count>2</sv_count>
      <rho>0.</rho>
      <alpha>
        1. -1.</alpha>
      <index>
        3 5</index></_>
    <_>
      <sv_count>2</sv_count>
      <rho>0.</rho>
      <alpha>
        1. -1.</alpha>
      <index>
        3 6</index></_>
    <_>
      <sv_count>2</sv_count>
      <rho>0.</rho>
      <alpha>
        1. -1.</alpha>
      <index>
        3 7</index></_>
    <_>
      <sv_count>2</sv_count>
      <rho>0.</rho>
      <alpha>
        1. -1.</alpha>
      <index>
        4 5</index></_>
    <_>
      <sv_count>2</sv_count>
      <rho>0.</rho>
      <alpha>
        1. -1.</alpha>
      <index>
        4 6</index></_>
    <_>
      <sv_count>2</sv_count>
      <rho>0.</rho>
      <alpha>
        1. -1.</alpha>
      <index>
        4 7</index></_>
    <_>
      <sv_count>2</sv_count>
      <rho>0.</rho>
      <alpha>
        1. -1.</alpha>
      <index>
        5 6</index></_>
    <_>
      <sv_count>2</sv_count>
      <rho>0.</rho>
      <alpha>
        1. -1.</alpha>
      <index>
        5 7</index></_>
    <_>
      <sv_count>2</sv_count>
      <rho>0.</rho>
      <alpha>
        1. -1.</alpha>
      <index>
        6 7</index></_></decision_functions></my_svm>
</opencv_storage>
